digraph Tree {
node [shape=box] ;
0 [label="CountLineCode <= 49.5\ngini = 0.498\nsamples = 15\nvalue = [7, 8]"] ;
1 [label="CountStmt <= 28.5\ngini = 0.278\nsamples = 6\nvalue = [5, 1]"] ;
0 -> 1 [labeldistance=2.5, labelangle=45, headlabel="True"] ;
2 [label="gini = 0.0\nsamples = 1\nvalue = [0, 1]"] ;
1 -> 2 ;
3 [label="gini = 0.0\nsamples = 5\nvalue = [5, 0]"] ;
1 -> 3 ;
4 [label="CountOutput <= 40.5\ngini = 0.346\nsamples = 9\nvalue = [2, 7]"] ;
0 -> 4 [labeldistance=2.5, labelangle=-45, headlabel="False"] ;
5 [label="gini = 0.0\nsamples = 7\nvalue = [0, 7]"] ;
4 -> 5 ;
6 [label="gini = 0.0\nsamples = 2\nvalue = [2, 0]"] ;
4 -> 6 ;
}